Language model created by QuickLM on Tue Jan 24 08:25:30 EST 2017
Copyright (c) 1996-2010 Carnegie Mellon University and Alexander I. Rudnicky

The model is in standard ARPA format, designed by Doug Paul while he was at MITRE.

The code that was used to produce this language model is available in Open Source.
Please visit http://www.speech.cs.cmu.edu/tools/ for more information

The (fixed) discount mass is 0.5. The backoffs are computed using the ratio method.
This model based on a corpus of 16 sentences and 10 words

\data\
ngram 1=10
ngram 2=24
ngram 3=24

\1-grams:
-0.8451 </s> -0.3010
-0.8451 <s> -0.1963
-1.5721 BACK -0.2341
-1.5721 FORWARD -0.2341
-1.3502 GO -0.1761
-1.5721 LEFT -0.2341
-1.3502 MOVE -0.1761
-1.5721 RIGHT -0.2341
-2.0492 START -0.2341
-2.0492 STOP -0.2341

\2-grams:
-1.5051 <s> BACK 0.0000
-1.5051 <s> FORWARD 0.0000
-0.8062 <s> GO 0.0000
-1.5051 <s> LEFT 0.0000
-0.8062 <s> MOVE 0.0000
-1.5051 <s> RIGHT 0.0000
-1.5051 <s> START 0.0000
-1.5051 <s> STOP 0.0000
-0.3010 BACK </s> -0.3010
-0.3010 FORWARD </s> -0.3010
-1.0000 GO </s> -0.3010
-1.0000 GO BACK 0.0000
-1.0000 GO FORWARD 0.0000
-1.0000 GO LEFT 0.0000
-1.0000 GO RIGHT 0.0000
-0.3010 LEFT </s> -0.3010
-1.0000 MOVE </s> -0.3010
-1.0000 MOVE BACK 0.0000
-1.0000 MOVE FORWARD 0.0000
-1.0000 MOVE LEFT 0.0000
-1.0000 MOVE RIGHT 0.0000
-0.3010 RIGHT </s> -0.3010
-0.3010 START </s> -0.3010
-0.3010 STOP </s> -0.3010

\3-grams:
-0.3010 <s> BACK </s>
-0.3010 <s> FORWARD </s>
-1.0000 <s> GO </s>
-1.0000 <s> GO BACK
-1.0000 <s> GO FORWARD
-1.0000 <s> GO LEFT
-1.0000 <s> GO RIGHT
-0.3010 <s> LEFT </s>
-1.0000 <s> MOVE </s>
-1.0000 <s> MOVE BACK
-1.0000 <s> MOVE FORWARD
-1.0000 <s> MOVE LEFT
-1.0000 <s> MOVE RIGHT
-0.3010 <s> RIGHT </s>
-0.3010 <s> START </s>
-0.3010 <s> STOP </s>
-0.3010 GO BACK </s>
-0.3010 GO FORWARD </s>
-0.3010 GO LEFT </s>
-0.3010 GO RIGHT </s>
-0.3010 MOVE BACK </s>
-0.3010 MOVE FORWARD </s>
-0.3010 MOVE LEFT </s>
-0.3010 MOVE RIGHT </s>

\end\
